digraph Tree {
node [shape=box, style="filled, rounded", color="black", fontname=helvetica] ;
edge [fontname=helvetica] ;
0 [label="X2 <= 0.131\ngini = 0.5\nsamples = 100\nvalue = [50, 50]\nclass = Moon1", fillcolor="#ffffff"] ;
1 [label="X1 <= -0.184\ngini = 0.227\nsamples = 46\nvalue = [6, 40]\nclass = Moon2", fillcolor="#57ace9"] ;
0 -> 1 [labeldistance=2.5, labelangle=45, headlabel="True"] ;
2 [label="gini = 0.375\nsamples = 4\nvalue = [3, 1]\nclass = Moon1", fillcolor="#eeab7b"] ;
1 -> 2 ;
3 [label="X2 <= -0.067\ngini = 0.133\nsamples = 42\nvalue = [3, 39]\nclass = Moon2", fillcolor="#48a5e7"] ;
1 -> 3 ;
4 [label="gini = 0.0\nsamples = 29\nvalue = [0, 29]\nclass = Moon2", fillcolor="#399de5"] ;
3 -> 4 ;
5 [label="X1 <= 1.278\ngini = 0.355\nsamples = 13\nvalue = [3, 10]\nclass = Moon2", fillcolor="#74baed"] ;
3 -> 5 ;
6 [label="gini = 0.49\nsamples = 7\nvalue = [3, 4]\nclass = Moon2", fillcolor="#cee6f8"] ;
5 -> 6 ;
7 [label="gini = 0.0\nsamples = 6\nvalue = [0, 6]\nclass = Moon2", fillcolor="#399de5"] ;
5 -> 7 ;
8 [label="X1 <= 1.727\ngini = 0.302\nsamples = 54\nvalue = [44, 10]\nclass = Moon1", fillcolor="#eb9e66"] ;
0 -> 8 [labeldistance=2.5, labelangle=-45, headlabel="False"] ;
9 [label="X2 <= 0.528\ngini = 0.183\nsamples = 49\nvalue = [44, 5]\nclass = Moon1", fillcolor="#e88f50"] ;
8 -> 9 ;
10 [label="X1 <= 0.234\ngini = 0.388\nsamples = 19\nvalue = [14, 5]\nclass = Moon1", fillcolor="#eeae80"] ;
9 -> 10 ;
11 [label="X1 <= -0.559\ngini = 0.496\nsamples = 11\nvalue = [6, 5]\nclass = Moon1", fillcolor="#fbeade"] ;
10 -> 11 ;
12 [label="gini = 0.0\nsamples = 6\nvalue = [6, 0]\nclass = Moon1", fillcolor="#e58139"] ;
11 -> 12 ;
13 [label="gini = 0.0\nsamples = 5\nvalue = [0, 5]\nclass = Moon2", fillcolor="#399de5"] ;
11 -> 13 ;
14 [label="gini = 0.0\nsamples = 8\nvalue = [8, 0]\nclass = Moon1", fillcolor="#e58139"] ;
10 -> 14 ;
15 [label="gini = 0.0\nsamples = 30\nvalue = [30, 0]\nclass = Moon1", fillcolor="#e58139"] ;
9 -> 15 ;
16 [label="gini = 0.0\nsamples = 5\nvalue = [0, 5]\nclass = Moon2", fillcolor="#399de5"] ;
8 -> 16 ;
}